2
3 3
-0.997497 0.617481 -0.299417 0.127171 0.170019 0.791925 -0.613392 -0.0402539 0.64568 
676 10
0.49321 0.803095 0.299234 0.49382 -0.167333 0.704031 -0.173559 0.828608 0.831965 -0.149144 -0.651784 0.594836 -0.832636 0.948302 0.159825 -0.412519 0.666128 0.991516 -0.17893 -0.875301 0.717887 0.906796 -0.474471 0.670705 -0.00381481 0.295145 -0.50914 0.351299 0.238075 0.203528 0.421003 0.697623 -0.727042 -0.371746 0.837458 0.0732749 -0.117161 0.295694 0.825312 0.428999 0.0270668 0.780694 -0.564928 -0.764705 -0.149272 0.109287 0.415737 0.683397 0.575484 -0.122472 -0.392148 0.25738 0.124877 -0.589611 -0.603783 -0.329736 -0.226614 0.98038 0.710176 0.624933 -0.970768 -0.629307 -0.645868 -0.418047 0.0274302 -0.362553 -0.357591 0.323871 -0.613456 -0.29995 -0.819358 0.232518 0.254103 0.894018 0.712703 -0.204518 1.0214 0.649725 -0.602241 -0.270054 -0.276545 -0.47641 -0.811071 0.683749 0.0134981 0.0308608 1.00173 0.085628 0.344319 -0.765883 -0.713006 -0.511996 -0.119743 -0.502626 0.139761 -0.659018 -0.891106 0.328843 0.0450986 0.80545 -0.673148 0.451805 0.489913 -0.572301 -0.66723 -0.246135 0.982408 0.787461 -0.612419 0.132205 0.975429 0.567842 -0.379267 0.724649 0.170895 -0.704608 0.980172 0.488993 0.341706 -0.0582075 -0.112941 -0.663324 -0.939377 -0.1445 -0.21442 -0.164622 0.633468 -0.0350274 0.635616 -0.148816 -0.772362 0.444175 -0.49727 -0.592535 0.558404 -0.900232 -0.426503 -0.567331 -0.654399 -0.0467152 -0.99823 -0.00402063 0.345794 0.839907 -0.438253 0.632403 -0.512238 -0.719429 0.412365 -0.365244 -0.987248 -0.823808 0.771012 0.49556 0.0708307 -0.494469 0.158849 0.552127 0.721437 -0.282146 -0.248398 0.608996 0.153237 -0.222477 -0.000464511 -0.719442 -0.940614 0.89457 0.685183 0.555276 0.0577161 0.70847 0.71443 -0.251252 0.310521 -0.926896 -0.536376 0.511746 0.195446 -0.358724 0.126893 -0.751198 -0.880356 0.11345 0.90277 0.478631 0.890587 -0.631088 0.113609 -0.209484 0.180142 -0.385352 0.551849 0.25835 -0.745278 0.575565 -0.572479 -0.0101404 0.907873 0.15427 0.198991 0.146459 0.981582 0.880462 -0.420682 0.318085 0.461603 0.798583 0.884315 -0.901531 -0.671012 -0.0541264 0.265038 0.472025 -0.929872 0.945264 0.533226 0.677119 0.991078 -0.188692 0.326082 0.524068 0.23483 0.472034 -0.993836 0.621751 -0.200736 0.195869 0.241049 -0.884762 -0.0984222 -0.616264 0.188291 -0.22258 -0.202953 0.663277 0.708342 0.9826 -0.239496 -0.184136 -0.295755 0.45555 0.186254 0.100375 -0.719779 -0.781121 0.606555 -0.816584 0.471297 0.196692 -0.885922 0.990051 -0.611499 0.960448 -0.637806 0.908567 -0.536607 0.131382 0.312967 -0.315104 0.215369 -0.969298 0.957762 0.255959 0.246071 0.6021 0.928587 -0.0641194 0.525437 0.0971404 0.566637 0.295267 -0.536973 -0.344646 -0.95996 -0.259194 0.354839 -0.322184 0.698294 0.923887 0.605213 0.383282 -0.915403 -0.139927 0.816523 -0.853694 -0.175451 0.683828 0.68157 -0.829585 0.0397573 -0.651729 -0.521897 0.254676 0.526658 -0.974129 -0.471863 0.875787 -0.57177 0.499365 -0.396131 -0.855787 -0.489856 0.391268 0.73053 0.414076 -0.995228 -0.0455346 -0.508087 0.559293 0.746006 -0.452114 -0.188679 -0.0239338 -0.428847 0.220354 -0.935148 0.894924 0.207196 0.480198 0.432007 0.34487 0.572184 0.331446 -0.219116 0.709371 -0.0888219 -0.951603 0.873509 0.687656 0.852797 0.646644 -0.511148 -0.466794 0.207768 0.912921 0.735294 -0.213348 0.763835 0.301949 0.701525 0.0152399 0.742119 -0.812186 -0.18743 -0.393736 -0.342498 -0.522759 -0.914313 -0.844882 -0.107533 -0.386366 -0.223996 -0.921293 0.40561 0.689053 -0.166227 -0.635213 -1.05013 0.891432 -0.893489 0.457725 0.418266 -0.796492 -0.791493 0.566403 -0.677535 -0.0244939 -0.566542 0.908404 -0.299822 -0.628615 -0.715513 -0.151859 -0.935788 -1.07858 -0.225704 -0.334108 0.554461 0.399758 -0.810134 0.182608 -1.07763 -0.662769 -0.186719 0.0999502 -0.320185 -0.252237 -0.640158 -0.173266 0.416333 -0.569199 -0.100028 0.218995 -0.655381 -1.07442 1.11347 0.387263 -0.0525467 -0.20017 -0.882603 -0.688645 -0.411347 0.612441 0.116668 0.0208505 0.4035 0.298898 -0.686409 0.590584 0.169096 0.77535 -0.406689 -0.54386 -0.300994 -1.13714 0.00642456 -0.593603 0.559576 0.325097 0.230377 -0.47051 -0.139444 0.547545 0.408385 -0.949926 -0.0562513 -0.819104 -1.02393 -0.474128 0.443446 -0.976081 0.530807 0.169659 -0.174639 -0.365303 1.00304 0.412708 -0.207987 -0.235396 0.541241 0.493558 -0.960232 0.753577 -0.847389 0.584703 0.574 -0.981029 -0.555231 -0.430547 -0.0208258 -0.76241 0.571019 -0.837486 0.066745 -0.966068 0.510242 0.649681 0.0957485 0.107439 -0.276566 -0.951189 -0.439588 -0.505544 0.869751 0.724133 -0.181087 0.500452 0.464281 0.110519 -0.496134 -0.994716 0.779067 -0.0111418 -0.0773532 -0.614282 -0.177566 -0.329377 -0.714357 0.107225 -0.429449 -0.304672 0.272974 0.399715 0.28906 -0.891593 -0.66811 0.612025 0.820813 -0.0336393 0.671118 0.287537 -0.595067 0.407843 -0.565987 -0.313046 -0.560315 -0.0039016 0.823052 0.507767 -0.955512 -0.313564 -0.435834 -0.780916 -0.483113 -0.0916935 0.846428 -0.359389 0.194516 -0.282784 -0.248268 -0.170873 -0.289132 -0.256022 0.550462 -0.481637 0.811684 0.96191 -0.894717 -0.073835 -0.814753 -0.166967 0.0639973 -0.0364086 0.994446 0.77459 -0.7022 0.407575 -0.663137 0.127781 0.354411 -0.818659 -0.418012 0.922056 -0.173376 -0.905454 0.288369 0.562731 -0.706473 -0.929563 -0.887577 0.0903517 -0.560057 -0.802315 -0.550038 -0.159308 0.0574 -0.439075 0.0193726 0.509381 -0.982397 0.398455 -0.801258 -0.0908141 -0.617662 -0.432022 -0.675008 0.354133 -0.595337 -0.335874 0.822457 -0.325314 -0.802447 -0.815 0.672786 0.220696 0.552475 -0.925944 -0.494279 -0.0332055 -0.504569 0.298155 0.403835 0.00815858 -0.242292 0.438502 0.447701 -0.801177 0.550909 0.199181 -0.569184 0.705861 0.706961 -0.443629 -0.0238392 0.71449 0.506446 -0.0455634 -0.306344 -0.350211 -0.0838354 -0.085429 0.461837 0.412331 -1.1243 0.48328 0.752218 0.0589636 0.177343 0.645361 -0.140272 -0.266926 1.09696 0.393464 -0.40574 -0.325724 0.011605 0.743342 0.499862 -0.1695 0.398688 -1.21454 -0.500161 0.20375 -1.06492 -0.504384 0.474555 -1.11183 -0.903683 -0.387662 0.135077 -0.399894 0.238999 -0.0714615 0.266558 -0.190032 -0.206318 0.406163 -0.442189 0.26609 -0.484988 -0.719848 0.102058 -0.844047 0.130501 -0.50297 -0.293941 -1.20393 -0.135881 0.0722899 -1.02675 -0.543628 0.605941 -0.619471 -0.150377 -0.87703 -0.0181979 -0.978339 -0.648801 0.0960431 -0.00705798 0.400287 -0.198201 0.716246 0.218094 -0.725321 0.163563 0.235314 -0.352388 -0.97195 -0.709562 -0.306241 0.360294 -0.625399 -0.938227 0.181023 -0.21912 0.101696 -1.32595 -0.936746 -0.717618 -1.05689 0.385591 0.0656159 -0.165152 0.199416 0.686892 0.267019 -0.195908 -0.675001 0.0608 -0.0700647 0.372361 0.340554 0.80271 -0.246025 0.11925 0.728076 -1.19596 -0.324905 -0.262185 0.227213 0.124033 0.702182 0.410321 -0.39685 0.440786 -0.720924 -0.739316 0.223668 -0.864018 0.143239 0.409548 0.401308 -0.0644696 0.982868 0.406359 0.749632 -0.285597 0.440606 0.0489183 0.373685 0.204434 0.634755 0.21157 -0.191813 -0.0167281 0.779973 0.484451 -0.427212 -0.288362 0.609069 -0.504048 -0.159965 0.432827 0.408591 0.733086 -0.398469 0.0221315 0.729325 0.320697 -0.439573 0.619015 -0.0993357 0.428913 -0.0193755 0.54071 0.878201 0.756398 -0.41442 0.18011 0.722035 -0.478086 0.44091 -0.439244 -0.49287 0.273954 0.882705 0.207575 -0.409991 0.127299 0.283829 0.109009 0.510812 0.74057 -0.0893325 -0.971046 0.591162 -0.696527 -0.400821 -0.266965 0.492023 0.377017 -0.232904 0.244717 -0.768042 -0.925121 0.106266 0.573755 -0.374799 -0.698766 0.657261 -0.210595 0.489082 -0.12949 -0.416234 0.113791 0.602782 -0.0219352 -0.293522 -0.549801 0.531233 0.986179 -0.451945 0.306737 -0.695924 -0.0261686 -0.257916 -0.898618 -0.531115 -0.149701 0.743826 -0.796293 -0.274161 0.746082 0.113186 0.0157063 0.429789 -0.851558 -0.543749 0.605769 0.811518 -0.177409 -0.931676 0.100683 0.46634 -0.824375 0.420102 0.108722 0.75842 0.0225355 0.800197 -0.937451 0.708282 -0.726254 0.0439766 0.528762 0.174588 0.817116 0.787848 0.867085 -0.00156034 0.378543 0.628294 -0.688513 -1.084 0.833357 -0.979774 -0.100617 0.654445 0.394827 -0.224723 -0.241479 -0.0940945 -0.50516 -0.0484218 -1.06939 -1.08312 0.742149 0.616859 -0.575658 -1.02454 -0.189839 -0.556087 -0.207125 -0.756454 -0.0909091 -0.945286 -0.141649 -0.276103 -0.982139 -0.886711 0.0142999 -0.607102 0.389143 -1.00361 -0.0743241 0.336415 0.335547 0.813413 -0.30967 -0.344316 0.263297 0.0160189 -0.571304 -0.288767 -0.253029 -1.21586 -0.308932 -0.959667 0.0945726 -0.511842 0.709435 0.680036 -0.735943 -0.8994 -0.630186 -0.75526 -0.0542376 -0.951003 -0.496575 -0.925624 -0.00251605 1.27408 -0.590492 -0.730198 -0.721517 -0.0226046 -1.07312 -0.180751 0.590365 -0.895139 -0.629363 0.337115 -0.976305 -0.178557 -0.779668 -1.16496 -0.185642 -0.807739 0.20855 0.289478 0.114226 -0.338979 -0.598746 0.694682 -0.465323 -1.20296 -0.0858348 -1.1411 -0.479924 0.528184 -0.634404 -0.204953 -0.00264463 -0.601276 -0.371094 -0.870043 -0.375102 -0.219781 0.683745 -0.334931 0.28521 -0.1058 0.702297 0.124708 -0.43952 -0.952974 -0.152555 -1.19674 -0.239843 -0.203417 0.0861624 0.197351 0.708906 0.446824 -0.351388 0.0949673 -0.711777 -0.418385 0.61923 -0.226834 0.34603 -0.231243 0.0104679 0.62158 -0.635017 -0.8145 0.607853 -0.525713 0.525747 0.184801 0.863971 -0.109669 1.10598 0.245589 -0.675552 -0.0778337 0.0565611 -0.814053 0.747618 0.584221 0.523232 0.048037 0.75393 1.21522 -0.341097 0.0447918 0.28101 -0.690255 0.854942 -0.189693 1.05746 0.0379647 -0.0416862 0.388771 -0.0455326 0.501044 0.8062 0.192614 -0.19672 0.111371 0.283019 -0.471064 -0.375791 1.0643 -1.03028 -0.656611 0.43481 0.325179 0.987983 -0.240794 0.105804 0.580504 -0.4761 0.771407 -0.951066 0.455163 -1.01031 -0.987087 0.601182 -0.150037 -0.0321112 0.0787555 0.0984183 0.49652 -1.70848 0.775435 -0.0127736 0.893377 -0.719532 -0.934058 0.255595 0.123298 0.505512 -0.254739 -0.262293 -0.841593 -1.15265 0.873128 0.760183 0.935846 0.601163 -0.322556 0.649613 -0.0920364 0.166609 -0.348123 0.215399 -0.842472 0.648538 0.283896 0.875195 0.602099 -0.923604 -0.0489544 0.822734 -0.829796 -0.363155 0.804384 0.164062 -0.892707 -0.434522 0.65977 0.549469 -0.697964 0.252061 0.683327 -0.361187 -0.327744 -0.617951 0.828312 -0.994649 0.631054 0.933906 0.317476 -0.454032 0.882103 -0.0175988 -0.141501 -0.646654 0.253439 0.238131 -0.107137 -0.717629 0.441175 0.0223933 -0.427891 0.859874 -0.0882989 0.537818 -0.202613 -0.820692 -0.5874 -0.958585 0.0283767 -0.300215 0.12503 0.743612 0.000630555 -0.337147 -1.00588 0.507068 0.340114 0.671209 -0.859577 -0.0883633 -0.428423 0.320377 -0.734035 -0.957876 -0.818439 0.192212 0.98918 -0.054395 -1.05019 0.346667 -0.441478 -0.1381 -1.16598 -0.333931 -0.971123 1.39689 0.515005 -0.875635 -0.835393 -0.888985 -0.898891 -1.16297 -0.898934 0.0244725 -1.03311 0.456572 0.638794 -0.835618 -0.217445 -1.1634 -1.30137 -1.07951 -0.482829 -0.715934 -0.610133 0.0120406 -0.591601 -0.0399644 -0.016923 0.0650305 -0.868319 -1.22107 0.0620491 0.149415 -1.1696 -0.362423 -0.14966 -1.49358 0.246936 0.221366 -0.267092 -0.755884 -0.732643 0.23989 0.0429952 -0.329072 -0.582252 -0.200471 0.127323 -0.141811 -0.137111 0.0402964 -0.585361 0.453675 -0.702274 -0.188071 0.313344 -0.787921 0.0517882 -0.120082 -0.151382 0.446592 -1.43334 0.852369 0.230034 -0.590655 -0.0488982 -0.083981 0.138622 -0.0494315 -0.37775 0.0881017 -0.817295 0.169425 -0.0180064 -0.210195 -0.0759116 0.159745 0.629769 0.295718 -0.802692 0.784837 -1.22031 0.447755 0.482079 -0.64239 -0.213328 0.367844 0.086544 -0.4182 -0.589758 -0.0793872 -0.360468 0.0142274 0.021929 -0.0777318 -0.299079 0.814749 0.291321 -0.331305 -0.108016 0.359692 -1.02311 0.459528 0.0700259 -0.573878 -0.139913 1.01403 0.153154 -0.36136 0.0465228 -0.00832621 -0.634001 0.728881 -0.370892 0.222728 -0.0210335 0.689156 0.439267 -0.507761 -0.906528 1.12178 -0.0530041 0.0642169 0.392911 0.266471 -0.230806 0.929919 0.498994 -0.949111 -0.203264 1.02256 -0.632768 0.779366 0.106986 0.744483 0.00154045 1.10769 0.626815 -1.18068 0.0519755 0.622534 0.188579 0.988824 0.310263 0.588176 0.349402 0.403957 1.0257 -1.07619 -0.109231 1.11138 -0.582339 0.558517 0.456982 0.675798 -0.100425 -0.171085 0.539618 -0.796743 -0.686983 1.27512 -0.349339 0.131664 -0.82618 0.9731 0.401404 0.201206 0.378871 -0.220431 0.15754 0.31047 -0.614025 0.991182 0.512638 0.494096 0.156148 -0.253801 0.569097 0.498649 0.852603 1.00125 0.523037 0.855684 0.523736 1.20834 0.879946 0.581178 0.532376 -0.36104 -0.350643 -0.693597 -0.189478 0.0406022 -0.667535 -0.0764256 0.803159 -0.378454 -0.323135 0.732735 -0.87399 -0.319836 -0.192613 -0.308023 -0.0871914 -0.263039 0.284893 0.211096 0.410687 -0.864376 0.834101 -0.975769 0.516953 -0.061001 0.41434 -0.181927 -0.885637 0.751627 0.205637 -0.469341 0.185644 -0.329898 0.220767 -0.262684 0.946472 -0.232147 -0.325662 -0.0945948 -0.3215 -0.750748 0.774455 -0.034438 -0.321088 0.420197 0.391588 0.150374 -0.220547 0.60575 -0.82807 0.131516 0.767376 -0.63907 -0.219469 -0.853292 -0.127166 0.614465 0.744469 0.587386 -0.367519 -0.628456 0.656891 -0.536935 0.028561 -0.381194 -0.61899 0.107344 -0.528213 -0.703405 -0.589345 -0.450023 0.15118 -0.98047 -0.643767 -0.709019 -0.598722 0.0913032 -0.201573 0.0124172 -0.777059 -0.602285 0.618342 -0.243282 -0.111051 0.445836 -1.48597 0.427432 -0.306344 -0.809288 -0.0865699 -0.282774 -0.11319 -0.442709 -0.678375 -0.227428 -1.03581 -0.0103302 0.0972113 -0.238151 -0.0811894 -1.20183 0.252779 -0.175913 -0.914208 0.638889 0.302552 -0.0139753 0.0942989 -0.241817 0.0623344 -0.175467 -0.229815 -0.45251 0.125759 0.388317 -0.175503 -0.242774 -0.271988 -0.400763 0.323999 -0.325067 -0.0760672 0.096811 0.391692 0.36951 0.130047 -0.78343 -0.0163977 -0.220145 -0.100937 0.0427531 0.574086 0.592231 0.753833 0.616548 -0.19573 -0.951573 0.000484746 -0.308043 0.208188 -0.456793 0.303523 0.438304 0.696042 0.556358 -0.0922745 -0.773459 -0.0339455 0.246958 0.380943 0.229267 0.853682 0.661748 1.05753 0.118653 0.131235 -1.19644 0.201414 0.245626 0.583387 0.127594 0.233777 0.225085 1.47595 0.00838123 -0.165897 -0.939824 0.181964 0.353218 0.469676 0.0897692 0.449118 0.0507139 1.83272 0.298811 0.00228379 -0.781473 -0.118949 0.579598 0.627046 -0.278198 0.583956 0.323801 2.38824 0.151285 0.419986 -0.888128 0.294614 0.270548 0.0785933 -0.212152 1.27986 -0.200409 1.92582 0.56679 0.0735771 -0.632012 0.476349 0.311794 0.117328 -0.437347 0.789022 0.339059 1.95244 0.426239 0.167103 -0.317508 0.182926 0.304946 0.296634 -0.549426 1.08796 0.294506 1.27857 -0.152672 0.429743 0.0183748 0.261666 0.375679 0.140333 -2.08991 1.11052 0.592905 1.30342 0.82283 -0.130066 0.82733 1.0859 0.455244 -0.0620649 -1.39185 0.389004 1.38841 1.09203 0.574602 -0.20536 -0.134085 1.62461 0.529294 0.1598 -1.09254 0.635505 1.28199 0.992177 0.905792 0.289793 0.534957 1.63273 -0.311953 -0.497713 0.221843 -0.275584 1.23811 0.517414 1.08312 -0.496298 1.13312 0.143255 0.156901 0.154449 0.683664 0.321852 0.962465 0.311529 0.657104 0.418131 0.212428 -0.656832 0.108744 -0.0576722 1.01067 0.909688 0.876765 0.787919 -0.607114 0.819494 0.983575 0.511492 -0.539707 -0.295745 -0.348264 -0.500064 -0.424843 -0.182201 0.662615 0.136106 -0.656364 0.472858 0.464555 -0.920311 -0.0929104 -0.496002 0.135176 0.211283 -0.814676 0.717916 -0.834059 0.218543 -0.669511 -0.392707 0.671871 0.293364 -0.364387 0.114373 -1.26614 -0.269098 -0.294053 0.0399621 -0.329188 -0.927653 0.183319 0.734443 0.123379 -1.07312 -0.121041 -0.684627 -0.441302 -0.945526 -0.55298 -0.316943 -0.958668 -0.633086 -1.29653 -1.09263 -0.869869 -1.19279 -0.372947 -0.695696 -1.0973 -0.0501709 -0.698541 0.49542 -0.285733 -0.79729 0.271591 -0.69891 -0.141573 -0.929298 -1.50252 0.0288547 -0.59725 -0.21025 -0.316248 -0.716517 -0.664231 -0.602337 -0.0683764 -0.356289 -1.36656 0.17432 -0.148238 0.528714 0.18292 0.372326 -0.190546 -0.19582 -0.349994 -0.953071 -1.22399 0.667639 0.346022 0.225105 0.28236 0.614622 0.122571 0.186694 -0.235725 -0.606333 -0.813448 0.158706 -0.887729 0.177303 0.383926 0.956442 0.641212 0.191527 -0.445851 -0.39951 -0.647009 0.2133 -0.239151 0.816831 0.069052 0.90312 0.681879 0.0766031 -0.397759 -0.721915 -0.385026 0.193274 -0.0496473 0.373209 0.121111 0.914701 0.484875 0.564385 -0.637757 -0.253974 -0.201924 0.206871 -0.229165 0.455194 0.261555 0.707637 0.588145 0.487564 -0.921329 -0.811912 0.235126 0.368931 0.0452626 0.876681 0.41018 0.356693 0.538774 0.305234 -0.728242 -0.473187 0.513663 0.251998 0.0590611 0.873659 0.655755 0.0876356 -0.0487514 0.687336 -1.08871 -0.157289 0.971012 0.354848 0.387147 1.34964 -0.208122 0.629204 -0.110893 0.20721 -1.14238 -0.0759602 0.897472 0.448318 0.195244 0.70678 0.0820183 0.4163 -0.0207339 0.72494 -0.918265 0.0156001 0.797049 0.269146 0.0408665 0.810521 -0.066784 0.609916 -0.150422 0.264987 -0.917352 -0.194423 0.872219 0.385566 0.0765854 1.29716 0.172404 0.671749 -0.259808 0.584413 -0.510066 0.650787 0.657102 0.265644 -0.85475 0.920954 0.0643104 1.12188 0.418116 -0.343302 -0.202942 0.562209 0.367542 -0.259691 -0.19936 1.76231 0.844698 1.62735 0.102251 0.597471 -0.319787 0.269857 0.0427793 0.534999 0.0837157 0.739689 0.323521 0.719976 -0.146448 -0.493277 0.491038 0.946465 -0.291494 -0.546074 0.211426 0.790669 0.675379 1.20782 0.0923677 0.0991783 1.18073 0.631607 -1.35578 -0.591897 -0.0366927 0.813666 1.12027 1.11539 0.486262 -0.173749 -0.244319 1.77143 -0.896432 -1.13294 0.199678 0.897315 1.11786 0.982828 0.312717 -0.257588 -0.348981 1.38822 0.121599 -1.50847 -0.349455 -0.313419 0.208136 -0.318313 -0.114341 0.319425 0.469225 0.166536 0.61753 -0.474717 0.390957 -0.426323 -0.567351 -0.599135 0.442806 -0.400243 0.565948 -0.584031 -0.12895 0.305357 0.442804 0.419247 0.00623831 -0.970182 0.219937 -0.473216 0.0340075 -0.218135 -0.0694599 -0.230758 -0.182831 0.257015 0.386604 -0.0501531 -0.719105 -0.0801087 -0.545295 -1.0853 -0.804605 -1.30234 -0.462788 0.587635 -0.603059 -1.57876 -1.59003 -1.1502 -0.529266 -0.908855 -0.0533278 0.108867 -0.408228 0.590732 0.0664157 -1.07407 -0.770125 -1.17564 -0.438543 -0.642032 -0.437324 0.705688 -0.682601 0.638001 -0.226413 -1.55305 -0.922065 -1.19227 -0.879933 -0.205286 -0.588307 0.129354 -0.431835 0.929118 0.67475 -0.22762 0.00345522 -0.617185 -0.583453 -0.625655 0.0304971 0.0952752 -0.485689 0.416694 0.2562 0.633946 0.214895 -0.169063 -0.762062 -0.425838 -0.483004 0.014798 -0.556797 0.464118 -0.167288 0.675891 0.0470485 0.539535 -0.354308 -0.515324 -0.684054 0.354265 0.0822253 -0.0776742 0.148292 0.985994 -0.0524892 0.734518 -0.0130782 -0.185148 -0.587011 -0.21206 -0.771663 -0.275005 0.189442 0.995382 0.315714 0.174276 -0.671354 -0.0185324 -0.319325 -0.224805 -0.384526 -0.013621 0.255406 0.959842 0.510665 0.390177 -0.2773 -0.158431 0.176633 -0.246931 0.116404 -0.387722 0.344081 0.553879 0.749491 0.575321 -0.630089 0.0222975 0.348518 0.00972923 -0.194921 0.37863 0.13189 0.236298 0.386772 0.907601 -0.875376 -0.281959 1.0396 0.107386 0.290766 0.320941 0.582081 -0.163524 0.079088 0.983105 -0.700215 -0.680777 1.50523 0.361093 0.0385469 0.762372 0.596158 -0.745799 0.446352 1.00415 -0.936528 -0.22354 1.80388 0.387136 0.391736 1.23896 0.395394 -0.9704 -0.333254 1.18093 -0.85942 -0.209532 1.24403 0.444194 0.352688 0.490938 0.584091 -0.467771 -0.130784 1.3064 -0.739638 -0.0892282 1.44743 0.223369 0.0310798 0.74319 0.489984 -0.18334 -0.547923 0.938168 -0.793921 -0.244298 0.831972 0.166465 0.763952 0.656126 0.68285 0.158003 -0.539761 0.305393 -0.45475 -0.24353 0.967214 0.133551 1.28732 0.517978 0.445176 0.440168 -0.569567 0.331088 0.180989 0.512208 0.340541 -0.16238 1.33754 0.9434 0.407394 1.31352 0.630519 0.00257709 -0.694489 1.05161 0.711123 0.0665738 1.10805 0.752221 0.750736 1.92071 0.334335 0.729807 0.434008 1.47267 -0.223902 -0.503394 0.455179 0.497239 -0.112439 1.67892 1.70884 1.07934 1.49894 1.86739 -0.585909 -1.33553 0.494812 0.40414 0.299095 2.36896 0.478451 1.19534 0.012437 0.869342 -0.0944721 -1.54304 0.228724 1.07077 1.27088 1.4412 0.185262 -0.0734205 -0.123717 0.570315 -0.323241 -0.105804 -0.957506 -0.125771 -0.346436 -0.819014 -0.855603 -0.341785 -0.196861 -0.670397 0.490071 0.549001 -0.59471 0.218095 0.791551 -0.615966 -0.463736 -0.859345 -0.0773607 0.621591 -0.724395 -1.20963 0.63795 1.1428 -0.0332037 0.158268 -0.180906 0.290326 -0.733012 -0.0486698 -0.668296 -0.096333 -1.53366 -0.436588 -1.01163 -0.509644 -1.32193 -0.222409 -0.184341 -0.6287 -0.149887 0.825512 -0.395414 0.949459 -0.375403 -0.580012 0.124832 -0.75744 -0.489301 -0.828103 -0.499695 0.423972 0.0135279 0.432236 -0.200964 0.959437 -0.748723 -1.0137 -0.385571 -0.9179 -0.0901404 0.696658 -0.120351 0.429839 -0.0128187 0.0563145 -0.434177 0.137901 -0.20056 -0.168076 -0.967427 0.531679 -0.0366664 -0.321402 -0.176475 0.27319 0.442823 0.636146 -0.14881 -0.245535 -0.473448 0.00191532 0.514576 -0.207609 -0.155747 0.702786 0.363416 -0.223836 -0.472882 0.0215786 -0.469727 0.126717 0.246452 0.256605 -0.0691527 0.778844 0.149087 0.699953 -0.839615 -0.515754 -0.152135 0.0915169 0.590617 -0.335409 0.152772 0.906177 0.306235 1.14216 -0.559193 -0.181224 -0.395299 -0.291735 -0.237516 -0.166329 0.0983601 1.20764 0.0880184 0.908226 -0.317866 -0.625087 0.317676 0.0087802 0.0844188 -0.365552 0.221082 1.00221 0.629305 1.07951 -0.492413 -0.301937 0.494576 -0.129904 0.674219 -0.305688 0.126345 0.363495 0.9279 0.640313 -0.474465 -0.350664 1.10505 -0.0176083 0.437357 0.0858173 0.882848 -0.0311213 0.477438 1.01578 -0.633406 0.0250103 1.75852 0.198252 0.504612 -0.0185727 0.493827 -0.380348 -0.393128 1.18491 0.0844036 -0.257641 1.7922 0.303149 0.0631728 0.283192 0.185035 -0.868672 -0.319236 0.332647 -0.153745 -0.339063 1.99556 0.394992 0.309249 0.599503 0.724316 -0.433397 -0.299055 0.301522 -0.0226636 -0.371878 1.43467 0.244287 1.59736 0.371973 0.87916 -0.391972 -0.395778 0.823719 -0.14441 -0.588795 1.33119 0.311498 2.4947 0.465164 0.596898 -0.179145 -0.0579815 0.727239 -0.442202 -0.155556 1.04244 -0.0431415 1.5779 0.174883 0.335292 0.21538 -0.144951 0.960287 -0.716507 -0.563631 0.968127 -0.402177 2.00444 0.841489 0.304875 0.204501 -0.276446 0.993602 -0.354662 -0.730488 -0.0331884 -0.290891 1.67233 0.574149 0.683137 0.609872 -0.392079 1.2222 -0.445436 0.794692 0.0593793 -0.480907 1.91607 0.680876 0.0606567 1.24603 0.361313 0.689481 0.788644 1.52869 0.629701 -1.86039 1.46234 0.432511 -0.175082 1.68409 0.956342 1.00309 0.577646 0.799917 -0.385307 -2.9198 0.959926 0.762703 0.648694 1.80167 0.730432 -0.259289 0.184 -0.755944 -1.03865 0.901843 -0.749102 -0.080176 -0.123625 0.307919 -0.561283 0.933763 -0.173244 0.392533 -0.655748 0.325852 0.822319 -0.694568 0.0772471 0.550435 -1.01483 0.480815 -0.61708 0.228239 0.112686 -0.476001 0.24223 -0.0146249 0.325788 0.226403 -0.771323 -1.02726 -1.1229 -0.0755069 0.499832 -0.996826 -0.147279 -0.211537 -0.572657 -0.160268 -0.342558 -1.25382 -0.21714 -0.999084 0.136836 -0.270663 -0.612995 -0.842822 0.420795 0.369214 -0.164928 -0.742718 -1.19991 -0.49582 -0.63172 0.601339 -0.155497 -0.355157 0.0753496 0.375703 -0.423232 -0.872744 -0.711895 -0.0180859 0.0447052 0.857078 -0.0624834 -0.24632 0.610149 0.930165 -0.0279531 -0.51023 -0.664883 -0.959509 0.0104666 0.5641 -0.235779 -0.0650081 0.1119 0.741181 -0.199055 -0.357709 -0.367622 -0.429776 -0.130163 0.801898 -0.432753 -0.611126 0.360822 0.861596 0.349101 1.21952 -0.471249 -0.178769 -0.204182 0.184301 -0.04872 -0.525681 -0.516872 0.87228 0.0247397 0.6213 -0.317431 -0.396517 -0.0460936 0.373572 0.588876 -0.434408 -0.343858 1.04285 0.382638 1.24687 -0.698185 0.469979 0.198255 -0.209837 0.884428 -0.155464 -0.232468 0.868638 0.325358 0.801997 -0.742436 0.7596 0.215152 -0.157385 -0.160171 -0.705066 0.179526 1.06372 0.523776 0.367064 -0.222501 0.656879 0.454862 0.163589 0.0912903 -0.26596 0.162347 0.843903 0.215056 0.613483 -0.23137 0.742559 1.89292 0.24872 0.428322 -0.479138 0.366725 0.515452 0.841294 0.205875 -0.200457 0.27638 1.90814 0.360739 0.345023 -0.580459 1.29819 -0.330801 0.292656 0.402151 -0.251098 0.109888 1.76863 0.474668 1.20657 -0.331457 1.22297 0.253307 0.490145 0.993413 -0.225673 -0.039125 1.62294 0.304413 1.5643 -0.696219 0.854608 -0.0485052 -0.0898208 0.619323 -0.0199835 -0.00552245 2.05751 0.542966 2.27562 -0.308693 0.903234 0.199398 -0.293027 0.498336 0.109322 0.293432 1.24557 0.510483 1.90543 0.126537 0.882004 0.499014 -0.515368 0.714795 0.151822 -0.669927 1.21603 0.6286 1.9744 -0.343396 0.647088 0.472145 -0.415723 0.83115 0.749009 -0.442545 1.09604 0.10139 2.06944 -0.134556 -0.211344 0.202661 0.107365 1.57651 -0.292662 -0.0525374 1.27292 -0.451638 2.26982 0.0356111 -0.439606 0.818837 -0.557019 1.01941 -0.000223606 1.27978 0.643524 -1.05935 2.08103 0.0602035 -0.226805 1.3259 0.0641356 1.16033 0.579019 1.79949 1.16143 -3.12139 1.68292 1.24237 -0.58471 1.94937 0.470863 1.01687 0.127378 1.38319 0.284674 -3.31589 1.51271 0.566774 1.10579 0.636812 -0.729552 -0.538637 -0.697048 -0.189627 0.2644 0.0943393 -0.905342 0.738575 0.346812 -1.00601 -0.837949 0.0825234 -0.78205 -1.02568 -0.151356 -0.908089 -0.344417 -0.402621 0.502618 -1.01397 0.357401 -0.847623 -1.06965 -1.21487 -0.302368 -0.499437 0.648997 -0.84825 0.319007 0.137489 -0.246294 0.516719 0.0718471 -0.896699 0.625616 0.440389 -0.250935 -0.749303 0.395731 -0.357418 -0.220036 0.199265 -1.06601 -0.467689 0.170721 0.314897 0.542452 -1.38123 0.267211 0.282345 -0.773393 0.0736555 -0.513097 -0.903019 0.0400263 1.30741 0.161325 -1.41609 0.41987 0.508114 -0.393524 -1.15594 -1.1957 -0.413864 0.62489 0.148255 0.914018 -0.094497 0.611168 0.518306 -0.582606 -0.609196 -0.768452 -0.00687992 0.448467 0.232361 0.155725 -0.340251 0.287709 0.657532 -0.444279 -0.164352 -0.544777 -0.336459 0.60045 -0.277838 0.0186453 -0.291322 0.11903 0.209743 -0.239751 0.549588 -0.412126 0.541427 0.345039 -0.262606 0.0430307 0.207356 0.0265141 0.408201 0.474496 1.38069 -0.306273 1.32263 0.0796604 -0.332484 0.0888836 -0.346346 -0.448077 0.319374 0.324615 0.714885 -0.595826 1.85922 0.217325 -0.645851 0.412354 -0.199699 -0.356616 0.434964 -0.0783983 1.59291 0.0313934 1.66519 0.339274 -0.846211 0.612985 -0.164235 -0.570763 0.737937 0.243669 1.32413 -0.428627 1.12299 -0.0821641 -0.604413 -0.0286066 -1.23242 -0.0613442 0.774638 0.756719 0.331287 -0.232078 0.557508 2.0299 -0.188421 0.354584 -0.66072 0.946371 0.676739 0.527006 -0.344704 -0.00405893 0.222433 1.61494 0.27882 0.717829 -0.836796 1.78616 1.19171 0.770801 -0.416625 0.163744 -0.0256159 1.80362 0.917823 1.12076 -0.897278 1.76975 0.742577 -0.104122 -0.062703 0.305869 -0.287204 1.34643 1.13823 1.83717 -1.02049 1.28247 0.905634 -0.243859 0.545068 -0.162959 -0.529391 1.17833 1.05089 1.53395 -0.671462 1.21775 0.379064 -0.0885862 1.10999 0.593806 -0.324406 1.71667 0.91883 1.59533 -0.913758 0.721491 -0.209152 0.0405831 0.291497 0.128144 -0.271057 1.41715 1.03298 1.57663 -0.66582 1.09917 0.417424 -0.188629 1.48943 0.127693 -0.6076 1.20947 0.97271 1.33919 -0.634516 0.28122 0.632771 -0.450319 1.2206 0.454287 -0.409771 0.961745 1.11328 2.27116 -0.734907 -0.1346 0.244333 -0.292193 1.73123 1.07764 -0.351426 1.22947 1.4202 1.90991 0.060872 -0.680797 0.590381 0.247968 1.47789 0.451617 1.11912 0.375626 0.715252 2.14997 0.155373 -0.369543 1.97873 0.37591 1.05446 0.54462 0.0808072 1.25088 -1.79969 0.774755 -0.429171 -0.400908 1.35844 0.821193 -0.391526 0.259432 -0.000958342 0.92921 -0.299255 -0.832628 0.510841 0.0650267 0.285511 -0.806297 -0.229981 -0.523774 -0.426462 0.221993 0.103251 0.264787 -0.464618 -0.305672 -0.138867 -1.17896 -0.0911751 -0.755076 -0.0897585 -0.707341 0.112897 -0.115082 -0.865558 -1.29531 -0.941249 -0.250994 -1.23577 -1.00126 -0.98117 -0.4131 -0.0784487 -0.195522 -0.924572 -1.11015 -0.307713 -0.527027 -0.246307 -1.05339 -1.1891 0.297074 -0.583792 -0.614593 -1.01055 -0.115947 1.34305 0.345326 -1.55249 -1.09906 -0.859423 0.529529 0.0334376 -0.203215 -1.07477 0.195577 0.568429 0.199038 -0.115918 -0.946941 -0.667372 0.237949 0.515276 -0.215552 -1.26459 -0.0183272 0.73089 -0.533146 -0.384562 -0.778899 0.117648 0.659671 0.345519 0.690451 -0.537867 -0.0085933 0.329582 0.0560431 -0.523983 -0.738635 1.69283 0.332779 0.511963 0.667572 -0.0699593 0.0255987 0.149307 -0.199465 -0.106895 -0.789449 1.71889 0.709013 -0.347263 0.290854 -0.0909086 -0.281484 0.324101 -0.251511 0.355511 -0.360226 1.65364 0.483043 -0.384364 0.0899392 -0.234651 -0.434555 0.503341 -0.0342274 1.327 0.268219 1.47833 0.145561 -0.696545 0.452215 -0.475756 -0.717303 0.18129 0.0842594 0.334945 0.31891 1.45626 0.149139 -0.851377 0.201761 0.207357 -0.91828 0.175395 -0.0410753 0.637294 1.22399 1.21934 0.522327 -1.16369 0.653078 -0.464097 -1.14479 1.03893 0.430954 0.302807 0.991082 0.96989 2.59578 -0.45883 0.571067 -0.188931 -0.664986 1.35642 0.948263 -0.0636339 0.776555 0.364009 1.15373 -0.123236 1.08935 -0.559784 0.498771 0.989327 1.26171 -0.195984 0.553636 0.0948794 1.075 0.206205 0.990363 -0.849566 1.2815 1.00598 1.17198 0.268527 0.370029 0.159231 1.07254 0.813077 1.21184 -1.05828 1.31139 0.65005 0.688215 0.602194 0.387223 -0.137167 1.29999 1.18413 0.909252 -1.29459 0.989098 0.720153 0.402951 0.720486 -0.132091 -0.486442 0.704595 2.19993 1.67023 -1.24978 0.938189 0.46701 -0.253912 1.0892 0.314672 -0.676533 1.23838 2.84397 1.97387 -1.09341 0.421104 -0.441211 -0.646941 1.5722 0.363303 0.266218 1.50061 3.30715 1.68019 -0.417627 0.657997 -0.336112 -0.307565 0.110948 0.507974 1.02542 0.966169 3.3604 1.55851 -0.961956 -0.620547 0.354367 -0.424244 -0.0372556 0.120874 0.637116 0.775617 3.07183 1.43998 -0.629191 -0.783887 0.452291 -0.548628 -0.143668 1.30104 0.9169 0.538234 3.66965 1.4439 0.165529 -0.485685 0.641052 0.798968 -0.38777 0.570571 1.06092 0.572253 0.945461 1.37066 0.873702 0.00142207 -0.0388226 0.0224321 0.83327 0.498331 -0.0857733 0.264745 0.804418 0.645854 -0.879166 -0.546858 -0.284672 0.147773 -0.384486 -0.619071 -0.714547 -0.0374719 -0.743917 0.371417 -0.0485053 -0.725499 -0.0877192 -0.439319 -0.284454 -0.90227 -0.291294 0.574872 -0.727305 -0.827939 -0.316885 0.362605 0.0493531 -1.76564 0.146641 -0.923141 -0.793944 0.331698 -0.542398 -0.341622 -1.30867 -1.25932 0.404053 0.103305 -1.34643 -1.77828 -0.729166 0.258493 -0.277381 -0.229891 -1.68778 -1.00077 0.0640532 -0.628436 0.153726 -1.63739 0.20959 0.437134 0.76261 0.867155 -0.394794 0.0578946 0.097292 -0.250414 -1.36055 -0.834082 0.0863304 0.379346 0.156378 0.810234 -0.606717 -0.187168 -0.386178 0.445776 0.0131768 -0.0321707 0.428009 0.608962 -0.324453 0.108578 -0.957232 -0.397277 0.075324 -0.302349 -0.0196932 0.270345 0.650466 0.44845 -0.065378 -0.192112 -1.01995 -0.0187177 -0.242737 0.192531 0.0897264 1.54053 0.627307 0.103603 0.200783 -0.235251 -0.929014 0.265356 -0.311293 -0.461636 0.305932 2.12814 1.0476 -0.267229 -0.297873 0.229249 0.108233 -0.108698 -0.555129 0.158343 0.973563 1.97094 1.58085 -0.476717 -0.48032 0.11348 0.0392619 0.182142 0.142653 -0.0332149 1.34713 2.18383 1.00442 -1.41147 -0.721682 0.23983 -0.420945 -0.144763 0.270912 0.0985028 0.926663 1.79778 0.818548 -0.332646 -1.03471 -0.455049 0.41152 -0.770124 -0.043731 0.345748 0.208989 2.19019 0.699614 1.68418 -0.74962 0.159748 1.39612 -0.92132 0.136633 1.53927 -0.239525 1.9146 0.639466 1.31996 -0.463332 0.979707 0.713868 -0.699224 0.0452584 1.62645 -0.178067 1.21263 0.146484 0.408973 0.00340527 0.529316 0.22735 0.0165271 0.360799 1.43843 -0.499508 1.24164 0.085146 0.853806 0.39741 0.791264 -0.460659 0.0898106 0.106897 1.34501 -0.380852 1.11821 -0.396749 0.637276 0.861337 0.614757 -0.684321 0.424536 0.46277 0.617226 0.51237 0.679367 -0.197715 1.00697 0.960051 0.918074 -0.293452 -0.111928 0.0625417 0.369941 0.547786 0.612645 -0.0725591 0.9142 1.63035 0.83079 -0.672436 0.101434 -0.388372 0.508695 0.73017 0.0568384 1.07362 0.816544 2.06973 0.272677 -0.498867 -0.519086 -1.07251 -0.585959 0.175694 0.0462029 0.848704 1.30987 3.5456 0.679229 -0.124126 0.111883 -0.731461 -0.934518 1.35009 1.09303 1.86529 1.80957 3.41507 0.119777 1.01879 -0.373562 0.126982 -0.905632 0.520481 0.142437 0.925641 1.09883 4.02269 0.155582 1.00076 -1.20858 0.0450083 -0.710626 0.247423 -0.251115 0.0939333 -0.239799 0.836639 1.58449 -0.246882 0.105317 0.582396 0.259071 0.822895 -0.748389 -0.598424 0.726944 0.688223 -0.377537 0.236184 -0.274475 -0.14436 -0.763175 0.0451069 -0.533423 -1.04944 -0.639352 0.170476 -0.538478 0.742737 -0.103867 -0.72382 0.418712 0.384681 -0.269449 0.427255 0.949332 -0.528565 0.843667 -0.45467 -0.321734 -0.575761 0.203866 0.601703 -1.49475 -0.768537 0.155032 -0.448885 0.0777675 -1.12154 -0.83471 0.569301 0.428813 0.538559 -1.63207 -1.26445 1.07367 -1.07201 0.475931 -1.42176 -1.24046 0.294381 0.325629 0.193762 -0.216889 -0.909905 1.01146 -0.69615 0.0991403 -1.29754 -0.17218 -0.167348 -0.165336 -0.112816 0.967552 0.137198 0.422778 -0.504306 -0.267853 -1.06455 -1.07472 -0.391446 -0.815943 -0.890423 1.25439 0.262272 0.386065 -0.0948719 0.422033 -0.65401 -0.713322 -0.774814 -0.435231 -0.202684 2.25435 0.689876 -0.215957 -0.591235 0.710425 -0.440433 -0.665734 -0.488975 -0.5422 -0.367995 2.00857 0.580524 -0.145414 -0.614343 0.345553 -0.458718 -0.826823 -0.692902 -0.569032 0.249637 1.70765 0.589077 -0.489549 -0.114234 -0.282028 -0.320243 -0.185039 -0.746682 -0.416779 1.32897 1.90366 0.900776 -1.08706 -0.882778 0.0173508 0.158192 0.345999 -0.900368 -0.327422 0.892492 1.57849 0.581601 -1.42059 -0.998105 -0.345736 0.596979 -0.45034 -0.32688 0.055708 0.779543 1.99531 0.322909 -0.736349 -0.886246 0.15752 1.72429 -0.995217 -0.53921 0.774914 -0.6398 2.21609 0.154138 0.247107 -0.574157 0.427692 1.90016 0.265555 -0.351147 1.17128 -0.250304 2.29534 0.528878 0.586141 -0.549857 -0.271829 1.70274 -1.0344 -0.498694 1.77297 0.173897 1.90251 -0.122691 0.793397 0.0149738 0.188194 1.19649 -0.610844 -0.504793 1.38426 -0.421496 1.66032 0.255934 0.0219023 0.434335 0.264707 1.03403 -0.11044 -0.200212 1.57738 0.817748 1.29176 0.250264 0.560905 0.418655 0.579878 0.762902 0.142419 -0.893103 1.6922 0.328208 0.999545 1.00457 0.5474 0.506337 0.48071 0.592745 0.340644 -0.561053 1.36066 0.963808 0.784649 0.841646 0.927112 0.409698 0.792942 0.592701 0.0484965 -0.135332 0.931387 0.229993 1.09047 1.67784 0.0359534 1.09683 0.408532 -0.124745 0.246622 -1.25784 0.20182 0.702132 1.36333 1.50749 0.301476 1.94056 0.793191 0.286233 0.042788 -0.546211 0.409395 1.29494 1.67367 0.81272 0.958056 3.72115 -0.0852756 -0.228453 0.485434 0.617531 0.222049 1.2294 1.07979 1.2366 1.13624 2.68929 -0.77759 0.955432 0.0906185 0.793485 -0.564469 -0.592504 0.946454 0.224258 -0.268866 0.432253 0.244708 -0.0586973 -0.783472 0.0998275 0.25048 0.54649 0.0654492 0.144103 -0.739894 0.426738 0.862592 0.10238 0.215673 0.71954 -0.212025 -0.103127 -0.281105 0.712014 -0.925426 -0.132305 -0.62865 0.726049 -0.143686 -0.612402 -0.743088 -1.08494 0.0176907 -0.229175 0.331611 -1.05309 -0.59121 -0.288441 -0.128351 -0.474843 -0.739698 -0.847017 -0.803376 -1.66512 1.66032 -0.521933 0.532178 -0.73358 -1.58298 -0.845388 0.817943 -0.761545 -1.18143 -1.10597 -0.132623 -1.40017 0.290923 -0.74934 -1.5678 -0.0424753 -0.724648 -1.23258 0.815883 -1.16174 -0.276719 -1.11081 1.08099 -1.34564 -0.926062 0.273525 -0.399342 0.0632494 1.09019 -0.412259 0.113662 0.227553 0.509135 -0.896011 0.0736271 -0.110905 -0.30006 -0.203672 1.64795 0.132632 -0.660357 -0.120498 0.0864079 -0.344781 0.275727 -0.34043 -0.586522 -0.26815 1.59536 0.337295 -0.384071 -0.0993403 0.239493 -0.174496 0.782659 -0.231945 -0.625125 0.0885656 1.31489 0.488499 -0.417713 0.0187408 0.166905 0.378381 1.21306 -0.482851 -0.510321 0.882398 1.58143 0.936093 -0.611736 -0.762811 -0.0316107 0.549661 1.36701 -0.143431 -0.396676 0.50514 1.44812 0.944525 -0.999507 -0.187183 -0.0737019 0.58683 0.280768 -0.646037 -0.413116 0.575963 1.46778 0.519759 -1.39935 -0.747613 -0.281238 1.35911 0.200186 -0.684248 0.193937 0.860048 1.15636 0.858252 -0.901023 -0.857815 0.19263 2.17863 -0.469251 -0.578423 0.329445 0.357279 1.55807 0.859042 -0.192358 -0.495317 0.152648 1.74982 -0.010067 -0.236152 1.53573 -0.183256 2.17795 0.374208 -0.0812913 -0.35571 0.256159 1.9353 -0.295427 -0.713957 2.09139 -0.605277 1.72215 0.261515 0.14627 -0.117353 0.182664 1.37819 -0.379615 -0.298973 1.85496 -0.0387781 1.91818 0.368953 -0.0680251 0.0846333 0.265806 1.49815 -0.427836 -0.304537 1.58815 0.975291 1.81128 0.117167 -0.469813 0.408059 0.328536 0.989202 0.0725591 0.174716 1.3552 0.860345 1.98624 0.532524 -0.820738 0.619413 0.721781 0.168326 0.132663 -0.0862695 1.5309 1.24322 1.21393 1.06786 -0.662677 0.5697 0.137207 -0.0932783 0.718394 -0.321659 0.915978 1.36403 1.43243 -0.189627 0.145726 0.609817 -0.0804143 1.07038 0.846899 0.286447 0.914537 1.0659 1.14585 1.79927 -0.38415 0.244596 -0.364365 -0.325687 0.276786 -0.128218 -0.0683857 0.336537 1.62123 1.92472 0.636919 2.03392 -0.534256 0.855173 1.78739 1.26154 0.339043 1.06587 0.909295 0.535074 1.00695 1.53564 0.193028 -0.0983594 0.134357 1.20912 -0.345315 -0.117134 -0.22655 0.0219647 0.267845 0.322347 0.163047 0.564568 0.718959 -0.755394 -0.501272 -0.266909 -0.606975 -0.183046 -0.282681 0.406986 -0.984206 -0.228334 0.170125 0.127505 0.0637078 -0.932111 -0.477337 0.880684 0.653806 0.514809 0.344343 -0.243743 -0.597192 0.104858 0.730472 -0.0248211 -0.561104 -0.345671 -0.147839 -0.532256 -1.01501 -1.16601 -0.264749 -0.48824 -0.403718 -0.472718 -0.119519 -1.39919 -0.502773 -1.39636 -1.24349 -0.38783 -0.0306671 -0.224395 -0.518151 -1.41513 1.08111 -0.433606 0.00901449 -1.14639 -0.936 -1.12712 -1.19551 -1.05091 -0.529586 -1.00239 0.426098 -1.0277 0.315783 -0.768237 0.390473 -0.296561 -1.32375 -0.711744 0.222843 0.191166 0.821053 -0.355517 -0.198479 -1.067 0.424965 -0.744354 -0.642569 -0.466381 -0.925975 -0.763533 0.813101 -0.503038 -0.164691 -0.125416 -0.224163 -0.408595 0.372068 0.197497 -0.62325 0.823011 0.690441 0.124864 -0.112289 0.204218 -0.304087 -0.100656 0.815728 -0.24875 -0.477865 -0.500022 0.59044 -0.0804161 -1.06472 -0.457427 -0.209799 -0.0888251 1.38272 0.121614 -1.29073 1.04072 0.755547 0.549676 -0.512648 -0.188538 -0.0171265 0.270286 0.974349 -0.263154 -0.625386 1.0165 0.562323 0.197083 -0.956765 -0.427685 -0.296882 0.944564 0.877681 -0.388871 -1.07034 0.732559 0.835344 0.154018 -1.16537 -0.613377 -0.544922 1.29769 0.443002 -0.761326 0.662619 -0.164696 0.932348 -0.134375 -1.07182 -0.300555 0.302923 1.80164 -0.104514 -0.442801 0.741855 -0.152605 1.05198 0.350014 -0.538944 -0.24029 0.15922 1.57556 0.228192 -0.222974 1.43213 -0.0116055 1.3041 0.098167 -0.5366 -0.137732 -0.0241503 1.49856 -0.234771 -0.144148 1.53633 -0.487829 1.44846 0.358816 -0.707895 -0.0992555 0.248457 1.76955 -0.211009 -0.46361 1.77465 0.400519 1.43031 0.944919 -0.680503 0.335447 0.0194778 1.09148 0.207394 -0.522902 1.81618 0.173977 1.51187 1.0606 -0.219295 0.223146 -0.00237947 0.551447 0.366091 -0.538768 1.89921 1.31015 1.48883 1.03512 -0.456913 0.111724 0.265886 0.540139 0.806714 -0.466581 1.22431 0.100293 1.85244 0.57262 -0.563474 0.480785 0.203196 0.231112 1.43972 -0.0350664 1.84899 0.689042 1.96215 0.357982 -0.319372 0.617845 0.0682106 0.125619 1.4011 -0.528113 1.37406 0.642649 1.61476 -0.263519 0.0451094 0.56905 -0.448141 -0.149605 1.82765 0.603845 0.720949 0.988244 1.64697 -0.00149828 -0.966 1.01133 -0.721466 -0.586583 1.04219 0.273922 0.546917 0.443436 1.50765 0.485492 -0.329227 2.01023 -1.26547 0.33567 1.3376 0.216319 0.710826 1.05161 1.52251 0.575462 -0.14515 0.376948 0.12695 0.0393585 0.254857 0.783031 -0.204594 0.214355 0.276678 -0.697788 0.529167 -0.35728 0.0553056 -0.315108 -0.176479 -0.548065 -0.496432 0.57263 -0.620951 -0.26527 0.807599 -0.761164 0.51374 0.110441 -0.504141 0.0684576 -1.08777 -0.338295 -0.0760825 0.335321 -0.0370359 -0.651896 -0.169212 -0.410634 -0.130393 -1.40535 0.612382 0.360832 1.09999 -1.10305 0.020109 -0.545073 -0.93015 -0.878052 -0.264929 -0.759765 1.13078 -0.247508 0.627964 -1.41719 1.02067 -0.980467 0.56834 -1.21956 -1.2629 -1.12306 -0.0362325 -1.6111 0.230761 -1.058 0.0788226 -1.53983 0.20844 -0.454821 -0.807958 -0.359737 -0.370401 -0.798355 -0.436008 -0.103443 0.410199 0.100558 0.534222 -0.0194294 -0.258065 0.300508 -0.121014 -0.920834 0.0361866 -0.412198 -0.239472 0.636436 0.198248 -0.431704 1.05161 -0.0546234 -0.952539 -0.561185 0.590245 0.29997 -0.989647 0.261702 0.576457 0.116704 1.64015 0.0287208 -0.692382 0.0705662 0.578593 0.509685 -0.506371 0.285354 0.132691 0.202329 1.29942 -0.185609 -0.896628 0.266108 0.236657 0.864605 -0.804881 -0.0113326 -0.179667 0.538366 0.969367 -0.50647 -0.645353 0.540057 0.172862 0.55592 -0.530818 -0.109078 -0.382541 1.63534 0.956602 -0.698016 0.16074 0.778928 0.289237 0.331468 -0.750253 -0.183978 -0.341047 1.10651 0.375329 -0.646467 0.0380869 0.639779 0.0594834 0.00167618 -0.757686 -0.280724 -0.206106 1.67843 0.21204 -0.226359 1.43437 -0.640993 0.484069 0.772547 -0.791105 -0.109757 0.253617 1.86358 0.500316 -0.3678 1.48678 -0.00630133 0.432704 1.14854 -0.869038 0.224212 -0.165519 1.44053 -0.0295262 -0.262353 2.01609 -0.528314 1.00061 1.01705 -0.758015 0.773623 0.33203 1.16199 0.061248 -0.223281 1.5684 0.99675 0.8397 0.90353 -0.92704 0.53987 0.466864 0.855019 0.406327 -0.262866 1.44985 1.46604 1.16293 0.158359 -0.976303 0.761539 0.665159 0.800421 0.76495 0.0587969 1.35811 0.516203 1.09622 0.13096 -0.954435 0.745367 -0.0138505 -0.0754979 1.0171 0.12239 1.31415 1.26386 1.97839 -0.0996016 -0.866612 0.394855 0.122883 -0.0381881 1.02243 0.75635 0.432072 0.383663 0.844493 -0.174677 -1.07546 0.348761 0.470559 -0.651912 1.56227 0.596484 0.821412 1.1541 1.46496 -0.232116 -1.31006 0.349192 -0.259371 0.0136355 0.844529 -0.245701 0.334843 0.770873 1.0931 0.302295 -0.195496 0.71798 0.198739 0.069127 0.77511 1.18007 0.513618 0.605524 0.958005 -0.286999 0.0869072 0.625977 -0.57815 0.856158 1.15733 0.360992 1.0625 0.0454594 -0.942385 -0.591875 -0.286598 0.852688 -0.190615 0.161265 1.05778 1.00326 -0.870417 0.689028 -0.805357 -0.675359 -0.793898 -0.941567 0.286143 0.857017 -0.954462 0.898491 0.607419 -0.0840496 0.236273 0.32753 0.0830592 0.935587 -0.829113 -0.472947 0.532521 -0.918595 0.311216 0.273502 1.01133 0.00798229 -1.45196 0.357742 -0.756823 0.0892634 -1.19678 -0.342771 0.892542 -0.626625 0.681682 0.146336 -1.39372 -0.00134737 -1.23929 -0.414935 0.0448852 0.138402 0.82009 -1.66365 0.524986 -0.801729 -0.852083 -0.320364 0.204942 -1.17597 -0.202006 -0.838687 0.000959255 -1.36755 0.289767 -1.35913 -0.448822 0.401872 1.11512 -0.629969 -0.902805 -0.716345 0.213001 -0.577889 0.145702 -1.3442 -0.572944 -0.800055 0.532757 -1.12147 1.1643 0.136209 -0.375946 -0.268761 0.0115342 -1.12423 -0.489462 -0.164234 0.788048 -0.668718 0.611229 -0.227927 -0.221409 -0.285165 -0.18659 -0.862187 -0.529615 1.22142 0.235175 -0.240979 -0.152243 0.152187 -0.466894 -0.149847 0.0190441 -0.0205439 -1.10016 1.57397 0.377079 -0.321589 0.0320462 0.0167005 -1.1724 0.0121812 0.217703 1.2935 -0.554867 1.19423 -0.244125 0.806851 0.434045 -0.215328 -1.53379 0.460203 0.115106 2.36976 -0.420337 1.22811 -0.388674 0.440028 -0.0533175 -0.557319 -0.147799 0.30043 -0.137668 1.89918 -0.601682 1.15152 0.205094 1.18925 -0.407008 -0.660785 0.964406 0.0967835 -0.00444775 2.04126 -0.706979 1.00951 -0.205576 1.05922 0.0279457 -0.266208 0.964918 0.233824 0.10759 2.08349 -1.00271 1.4517 -0.315613 1.37734 0.0896086 0.167636 1.35486 -0.355572 -0.0528241 1.82034 -1.20993 1.10665 0.352816 0.980437 0.238632 -0.0922711 1.5754 0.407807 0.00483177 1.56813 -1.14838 0.814389 0.320295 1.09321 0.428187 -0.0057514 1.75564 0.238337 0.409624 1.12776 -1.44868 0.717859 0.322503 0.904109 0.0653978 0.0285865 1.46473 1.73957 0.266695 1.2295 -1.57494 0.429466 0.484254 0.89818 0.654007 -0.43335 1.28118 1.29619 1.13198 0.367868 -1.06909 0.590887 0.47095 0.79577 1.01155 0.140867 1.26946 0.775401 0.508473 0.469453 -1.07561 0.64259 0.140897 0.59094 0.946965 0.226237 1.64974 1.00375 1.47033 0.230859 -0.290737 0.585253 -0.0526106 0.207952 1.22605 1.40284 0.614884 0.355464 1.12692 -0.485116 0.477599 0.946556 0.227794 0.783025 2.23882 0.871542 0.54765 1.1193 1.12367 -0.680448 0.0309763 0.253497 -0.558861 0.34971 0.816339 1.5422 1.20269 0.864432 0.815681 0.813592 0.624085 0.0923421 0.726208 -0.508401 0.0954738 0.876625 0.196059 0.826774 -0.371028 0.769499 0.853498 0.940985 0.153173 0.941745 0.774458 -0.295385 0.388868 -0.921984 -0.453305 0.430274 0.537743 -0.930711 -0.259924 0.615009 0.607907 0.265004 -0.574476 -0.247199 -0.0737474 1.29543 -0.835441 -0.0984838 -0.130313 0.214265 0.0342712 0.501884 -0.838465 -0.680293 -0.314036 0.980215 -0.643984 0.110437 0.253008 -0.361588 -1.04783 -0.882594 -0.115449 0.401215 0.152102 -0.895205 -0.489047 -0.0941314 -0.567587 -1.26173 -1.46952 -0.644681 0.128822 -0.479177 0.738608 -0.654256 -0.629431 -0.40345 -0.928127 -1.22545 -0.87565 -0.677104 0.759621 -0.222352 -0.445656 -0.0456667 -0.772863 -0.405292 -0.031593 -0.56295 0.803046 -0.160056 -0.23785 -0.240305 -0.16673 -0.317746 -0.161443 -0.593611 0.905142 -0.0785728 1.28575 -0.568583 0.110949 0.0344328 -0.829629 0.179259 -0.49616 -1.09866 0.601955 -0.406634 0.84064 0.0869258 -0.706853 -0.362952 -0.580712 -0.26389 -0.422515 -0.347037 0.451904 -0.642981 0.74819 -0.30469 -1.00586 0.239972 -0.718033 -0.0401072 -0.935225 0.611312 0.340684 -0.01947 -0.0958748 -0.0138467 -0.432961 0.213279 -0.605372 0.677802 -0.186325 1.95274 0.0941951 1.15813 -0.124701 -0.239957 -1.22708 -0.0839378 -0.195861 1.46194 0.181951 2.23456 -0.386155 0.639651 -0.66172 -0.444025 -0.0855052 0.204646 -0.39228 2.9384 -0.27834 2.32931 -0.959465 1.02539 -0.619648 -0.456608 0.519129 0.0713638 -0.54825 2.93839 -0.478277 1.84873 -0.34872 0.514304 -0.582131 -0.238364 1.33595 -0.750146 -0.55176 2.79293 -0.694113 1.60608 -0.218038 0.40357 0.301547 -0.0626133 0.985014 0.317561 -0.0235032 2.02497 -0.762329 0.933773 0.177679 0.524473 0.584149 -0.0323822 1.2741 1.36852 -0.227317 1.64886 -0.822356 0.986451 0.148954 1.07529 0.774972 -0.013205 1.028 0.74795 0.0729405 0.703974 -0.265745 0.793439 0.500735 0.73704 0.976501 0.150444 1.52611 0.908103 0.410138 0.610139 0.0639235 0.781904 0.00744753 0.119102 0.650813 0.690604 0.953455 0.76993 0.480501 0.495067 0.0915849 0.713125 -0.301986 0.817464 0.59595 0.587865 0.925928 0.812125 0.662034 0.392873 0.532941 0.264278 0.199357 0.951958 0.446457 0.802417 0.668737 1.48294 0.451335 -0.161149 0.243598 0.490096 0.0906384 0.566489 0.74083 0.586512 1.45219 0.860261 0.481825 -0.533726 0.389896 0.395425 0.228539 0.0656367 2.14202 2.194 0.614418 0.744087 0.207458 -0.0814786 0.837728 0.460997 -0.226702 1.55827 2.23023 1.31032 0.279765 1.27566 0.204907 0.526862 1.15502 -0.360374 1.22829 0.20985 1.70729 0.209816 -0.260776 1.17877 -0.942356 0.546696 0.0520088 0.584005 0.724385 1.07553 0.328707 0.0830495 -0.505116 -0.538253 -0.482519 -0.842059 0.463697 0.425018 0.516096 -0.106645 -0.298264 0.551316 -0.712597 -0.63126 0.0954065 0.223917 -0.0924815 -0.379677 0.200838 0.264663 -0.675803 0.18462 -0.0363393 -0.203112 0.710562 1.66501 -1.0295 0.368393 -0.0257334 -0.665768 -0.361629 -1.79219 0.74957 0.134597 0.682474 0.629417 -1.35171 -0.0904701 -0.631765 -0.68982 -0.599941 -1.64133 0.856736 -1.09467 -0.226674 0.123726 -0.78065 0.254653 -0.658752 -0.69709 0.210028 -1.05278 0.103599 -1.49091 0.225206 -0.536374 -0.806144 0.439339 -0.634062 -0.343236 0.157751 -1.52697 0.575925 0.447788 -0.203805 -0.385236 -0.627194 0.105225 -0.437115 -0.41664 -0.109429 -0.771492 0.0111365 -0.369153 -0.407198 -0.393819 -0.0796656 0.0400684 0.616266 -0.0186232 0.613942 0.242467 -0.152615 0.860235 -0.722897 -0.461399 0.023903 -0.124489 0.419713 0.625322 -0.0496268 0.493686 -0.0918573 0.0404896 -0.895685 -0.0445465 0.432695 -0.156348 0.00366206 0.666346 -0.346983 0.119153 -0.691124 0.41053 -0.752556 -0.11907 0.488376 0.315491 -0.00372844 0.100451 -0.835426 0.298773 -0.493949 0.340763 -0.959694 0.792034 0.655103 0.425409 -0.617077 0.971334 -0.394819 0.439154 -0.795724 0.471331 -0.764369 1.22829 1.01374 0.751391 -0.957941 0.300227 -0.494692 0.433722 0.134539 -0.380416 -0.431303 1.69985 0.408946 1.02455 -0.616859 0.673137 0.402281 0.173205 0.778096 0.453958 -0.560414 2.2941 0.358421 1.04801 -0.584034 0.373681 0.395871 0.319946 1.09647 -0.500015 -0.602805 2.63948 0.298074 1.19096 -0.480184 0.271347 0.119442 0.661613 1.10963 -0.194011 -0.326243 1.85228 -0.025084 1.18532 -0.608651 0.240026 0.325245 0.623552 1.41448 0.543627 -0.303763 1.59239 -0.00451202 1.15728 -0.624256 0.609939 0.471663 0.66337 0.834584 1.01799 -0.424149 1.15092 0.234093 0.666051 0.0207544 1.08817 0.945914 0.461667 1.46345 0.885292 0.143658 0.446621 0.152016 0.620166 0.143303 0.535377 0.977506 0.634508 1.02913 0.647673 0.211879 -0.00657095 0.0944381 1.01321 0.0390544 0.746364 0.761072 0.869978 0.929972 0.926664 0.0799152 0.0720784 1.15553 0.36187 -0.0182898 1.78624 0.435389 0.873737 0.464575 2.13027 0.348197 0.0731816 1.40565 0.512893 0.149728 1.19364 0.666314 1.12915 0.931909 1.40284 0.245346 -0.238694 1.46493 0.424371 0.0671417 1.51645 0.59079 1.20022 -0.145297 0.451489 -1.43204 0.972391 0.744051 0.436466 0.978435 0.485243 0.912049 0.209461 0.832224 0.294832 -1.34931 0.276622 -0.11581 0.973183 0.960696 -0.108388 0.044857 -0.0216854 -0.607292 -0.197198 0.0883286 -0.555257 0.893353 0.180698 -0.556873 0.838383 -0.245531 0.460264 -0.9 0.843628 0.360463 -0.473139 -0.183734 0.871648 -0.901518 0.779461 -0.768573 0.63461 -0.62244 0.0141346 -0.424262 0.606472 -0.0342349 -0.683305 0.108931 -0.470726 -0.651468 0.18464 0.0549639 0.328443 0.817051 0.243718 -1.54502 1.16239 -0.628819 -0.271278 -0.761953 -0.114601 -0.171307 -0.399078 0.317584 0.508778 -0.761684 0.18404 -1.21993 -1.27782 -0.526267 -0.517868 -0.564339 0.232149 -0.06813 -0.414543 -0.588654 -0.133474 -0.542172 -1.05824 0.840914 -1.34959 -0.33106 0.122575 -0.492732 -0.335231 -0.815103 0.140382 0.411326 -0.611655 0.577739 -0.186843 -0.13932 1.1017 -0.599746 -0.262 -0.291371 -0.135625 0.263391 0.532908 -0.0077509 -0.775838 -0.163564 0.384687 -0.456015 -0.546752 1.04447 -0.431204 0.263025 0.917901 -0.187904 0.348908 -0.111448 1.05474 -1.05949 -0.380355 1.04721 -0.523262 0.799642 0.730055 0.214704 1.02375 -0.746953 0.633025 -0.82237 -0.0116081 1.18317 -0.494218 0.0316332 0.411237 0.0528292 1.4532 -0.955832 0.603219 -1.11975 0.0204545 1.06107 -0.538831 0.0916937 0.53014 0.392649 0.819439 -0.722847 0.419989 -0.854623 0.0746928 1.34004 0.172386 -0.324413 0.797889 0.0207799 1.25182 -0.902477 0.444159 -0.539018 0.862503 1.63978 0.265299 -0.683208 0.414523 0.478408 0.981437 0.0449759 0.220787 -0.501082 1.03686 1.21587 0.847367 -0.907823 0.720929 0.841654 1.05668 0.199337 0.991701 -0.351853 1.55017 1.23495 0.903815 -0.863495 0.557408 0.56117 1.20221 0.721572 0.33905 -0.430349 1.62427 1.05166 0.7154 -0.409975 0.977938 0.679114 1.24158 0.806986 -0.107113 -0.0288917 1.41058 0.999262 0.772569 -0.544234 0.768267 0.372731 1.16478 1.29662 0.186827 -0.0489494 1.02025 0.710868 0.830164 -0.463279 0.688897 0.554304 1.61146 1.17366 0.948026 -0.36519 1.17906 0.989815 0.545426 -0.28515 1.3911 0.387623 0.789648 1.58396 1.53713 -0.037963 0.69854 0.610398 0.443136 -0.0559145 0.68157 0.697839 0.844754 1.11256 0.717686 -0.189155 0.386309 0.326727 1.09572 0.197315 1.44706 1.53138 1.19425 1.50066 0.6852 -0.22675 0.159689 1.162 0.117775 -0.195023 0.8839 0.593521 1.21209 1.04827 0.727609 -0.640404 0.958573 1.31199 0.117618 0.548795 0.975845 1.62633 1.66301 0.591836 1.318 -0.501885 0.715733 0.492192 0.462852 0.376521 0.875123 1.54838 1.03762 0.544062 0.81936 -0.819039 1.10608 1.11803 -0.64004 0.123984 -0.641171 0.905303 0.0276414 0.416779 0.558187 -0.571405 0.178461 0.0119755 -0.878969 0.389872 -0.575722 -0.9221 -0.192038 -0.946682 0.216591 0.410861 0.796031 0.219622 -0.779928 -0.806358 -0.260662 -0.0239186 -1.14533 -0.724182 -0.368945 0.182564 0.155594 -0.164814 0.705295 -0.208259 0.272549 -0.0888439 -1.1327 -0.333052 0.360762 -0.502199 0.284719 -0.0355915 -0.0880455 -1.23338 -0.874284 -0.957588 -0.0695677 0.189528 0.358793 -0.27642 -0.722961 -0.451669 0.0456782 0.456461 -0.693292 0.228116 -1.04352 0.305202 0.490002 0.239935 -0.410141 -1.12517 0.230293 -0.00147687 -0.0480894 -0.766104 -0.338893 0.381347 -0.564711 0.220239 -0.711984 -0.107356 0.106223 -0.253948 0.237441 -0.226484 -0.245015 0.264438 0.0769979 -0.10491 -0.439068 1.12375 0.0310961 0.236042 0.94113 0.248538 0.0518082 0.396757 -0.426398 -0.0445053 -0.212603 0.266416 -0.269395 0.210866 0.333044 0.542221 0.325785 0.00321991 -0.227844 -0.372992 -0.0795285 0.788453 -0.3907 0.921134 0.626266 0.327779 0.347525 -0.188015 -0.143259 -0.545619 -0.332345 0.866964 -0.323008 0.492718 0.930032 0.393228 0.953137 -0.616956 0.0606284 -0.61181 -0.0817618 0.998313 -0.623461 0.305391 0.682208 0.429949 1.76765 -0.570543 0.810724 -0.511709 0.116824 0.71729 -0.430245 -0.201788 0.352412 0.266208 1.38971 -0.254947 1.00584 -0.527812 0.158682 1.24932 -0.219557 -0.570685 0.375204 -0.0371953 1.50489 -0.218151 0.525463 0.316953 0.330376 1.16368 -0.306439 -0.935782 0.421234 0.915247 1.41055 -0.0282407 -0.00868897 0.185863 0.719509 1.02814 0.358227 -1.08813 0.628022 0.887412 0.985493 0.248889 0.598194 -0.327813 0.975357 1.07595 0.510247 -0.776469 0.85372 0.886403 1.35542 0.80313 0.820316 -0.378633 1.13445 1.08689 0.608539 -0.687654 0.987716 0.975298 1.45447 1.01639 0.250879 -0.133894 0.942991 1.00793 0.932875 -0.914637 1.47185 0.383109 1.42323 1.07006 0.268447 -0.362203 0.838211 1.17299 0.775362 -0.434929 1.33163 1.18218 2.04819 0.811548 1.21575 -0.460425 0.921252 1.64913 0.273429 -0.582101 1.3434 0.671824 0.284549 0.992623 1.28524 -0.273931 1.02218 1.27765 -0.652996 0.44186 1.41192 0.44065 1.46629 0.387701 1.77758 -0.388594 0.626656 0.340826 -0.445142 0.968586 1.25873 1.21431 0.590921 1.10416 0.262333 -0.679648 0.850669 0.164283 -0.749045 1.51684 1.71657 0.50284 0.0710089 1.11391 1.16945 -1.12665 1.5959 1.25002 -0.0896377 0.279946 0.297733 1.21091 0.91987 -0.166023 -0.625586 0.149776 -0.676072 0.691657 1.08289 -0.206824 0.908134 0.498196 0.300845 0.0352964 -0.942326 0.0952893 0.466351 0.361768 -0.491923 0.890739 -0.63718 -0.0567159 -0.381064 -0.788722 -0.7167 0.613692 0.171333 0.494976 0.753932 -0.403952 -0.0699797 -1.04507 0.350484 0.659375 0.67979 0.767421 0.170273 -0.0596747 0.0499238 -1.12481 -0.00311966 -0.430697 0.493888 -0.675759 -0.6433 -0.224335 0.095975 -0.186747 0.49607 -0.552526 0.33133 0.00821433 -0.640308 0.211224 0.194141 -0.235599 0.270495 -0.917571 0.69311 -1.11813 1.00462 -0.173749 -0.274392 0.0977184 -0.295459 -0.175269 -0.256867 -0.346566 -0.042403 0.288005 0.336559 0.589372 -0.839739 -0.705915 -0.152579 -0.124295 -0.272474 0.0698873 0.302345 -0.245971 0.104708 0.250767 -0.78782 -0.250923 0.0284873 -0.162146 -0.926082 0.126676 0.32991 0.332989 0.541491 0.0424381 0.536404 -0.398515 0.528473 -0.336424 -0.4388 0.608345 0.454041 0.20451 0.82586 0.397796 0.73331 -0.315677 0.386347 -0.445065 -0.644335 0.748005 0.191739 1.17486 0.458257 0.70509 0.712638 -0.276465 0.644674 -0.403363 -0.308425 0.663584 -0.0292809 0.718626 0.304755 0.459919 0.482706 -0.441352 0.641694 -0.524067 -0.25666 1.02641 -0.402287 1.17039 0.799755 0.199486 0.745723 -0.311398 0.875573 -0.651393 -0.212414 1.24587 -0.677985 0.85491 1.00554 -0.187338 1.19744 -1.57125 1.12153 -0.205453 0.0377516 0.70295 -0.531706 0.702639 0.824761 -0.66788 1.13942 -0.282854 1.14883 -0.487845 0.0968508 1.21613 -0.368203 0.724276 0.656894 -0.249963 1.03352 -0.157427 1.06875 0.0452613 0.18231 0.839187 -0.237954 0.0283842 0.132754 0.236637 1.71035 -0.142878 0.463657 0.554487 0.61191 0.932366 -0.359599 -0.253287 0.409153 0.758458 1.4047 -0.256539 0.41741 0.246375 0.384602 0.437253 0.304824 0.0515863 0.587111 1.25038 1.44183 0.488631 0.245758 -0.457869 0.614463 0.682726 -0.233542 -0.175813 0.926042 0.672294 1.35759 0.695519 0.446201 -0.310013 0.412615 0.0149389 0.198653 0.764827 1.2279 0.786794 1.56601 0.721073 1.10194 -0.161063 0.463896 -0.254295 0.177822 0.0528117 0.883608 0.325472 1.91572 1.40754 1.30025 -0.709561 0.234571 0.71802 0.213036 0.604182 0.906581 1.04983 1.19127 1.02024 0.655453 -1.08615 0.207331 0.50552 -0.183577 0.340599 1.13544 0.0664103 1.92198 0.870622 0.210282 -1.12093 0.576459 1.16343 -0.00402841 0.368769 -0.227166 1.22605 -0.124095 0.185959 1.13665 -0.30605 0.274568 0.396874 -0.309467 -0.167588 0.0878358 0.912705 0.0806327 -0.77975 0.994067 -1.14625 0.116629 -0.548193 -0.285212 0.276291 -0.241731 0.989284 0.684519 0.0907315 0.456099 -0.80871 0.694327 -0.655385 0.792108 0.717215 -0.622181 -0.747246 0.0957976 -0.905801 0.188083 0.924565 -0.838666 0.431915 -0.782468 0.400906 -0.527096 0.77884 -0.343398 0.895397 -0.578722 -1.06412 0.135265 0.583814 -0.487737 0.466177 0.935376 -0.568267 -0.497405 -0.267869 -0.730732 -0.68468 -0.134394 -0.131954 -0.510437 -0.0582887 -0.468098 -1.27436 0.66272 0.894952 -0.506258 -0.842608 0.332592 -0.129402 -0.472946 -0.575231 -0.142804 -0.0518684 0.132607 0.15231 0.0278065 -0.510706 -0.677573 -0.901481 -0.410171 -1.079 0.527036 -0.856162 -0.641587 -0.15423 -0.88819 -0.44089 -0.683805 0.0256082 -0.181272 0.0228268 0.476488 0.553235 0.350281 -0.0248735 -0.935886 -0.43927 -0.645335 0.0158246 0.383571 -0.102446 -0.247471 1.28136 0.164448 -0.0774019 -0.57821 0.207163 -0.564273 -0.165082 -0.0714433 0.491709 -0.025439 0.566288 0.236219 -0.360663 -0.51376 0.28992 -0.925609 0.301085 0.12155 0.457401 0.509775 0.596043 0.766922 -0.301664 -0.4229 0.141724 -0.614364 0.761624 -0.222239 1.15246 0.159581 0.360648 0.959611 -0.829786 0.367678 0.275601 -0.699631 0.498607 0.0776457 1.45054 0.476386 0.264903 0.76385 -0.368608 0.147668 0.150926 -0.648875 0.738568 -0.22749 1.94744 0.530434 -0.0946196 1.01182 -1.02908 0.44505 0.478387 -0.454516 0.970615 -0.370188 1.55589 0.468801 -0.710297 1.25977 -0.731003 0.81581 0.540442 -0.0988583 1.02741 -0.448029 1.56652 0.668792 -1.548 1.42683 -0.506335 0.735992 0.610123 -0.102974 0.948045 -0.381194 1.5465 0.675231 -0.826871 1.4701 0.260879 0.161706 0.586974 0.0717303 0.965441 -0.317689 1.14765 0.172811 -1.33847 1.50264 -0.364477 -0.301611 1.15112 0.651667 0.932534 -0.100247 1.2296 0.951251 -0.196273 1.27109 -0.209118 -0.25068 0.878266 -0.306612 0.320837 0.313585 1.42688 0.389101 -0.0300388 2.03605 0.187856 0.190106 -0.257223 0.0684356 0.940989 0.276166 0.324522 1.41629 0.503278 0.94892 0.517077 0.714892 0.690714 0.652694 0.171391 0.262613 1.18745 1.42706 0.482266 0.77823 1.07978 0.88728 0.0175544 0.452775 0.0288544 0.704419 0.132911 1.27821 0.601532 0.956736 0.496274 0.390581 -0.524968 1.37527 -0.176502 -0.673263 0.9245 1.02542 1.14196 -0.184138 0.508328 0.13527 0.103227 1.10819 -0.292089 0.683511 -0.241638 0.122476 0.0412544 0.331098 0.570334 -0.507072 0.230698 0.476619 0.484424 0.14109 0.231475 0.90256 0.875371 0.790561 -0.192698 -0.396246 -0.60459 -0.11575 -0.709804 -0.610065 0.0200518 -0.115487 0.485013 0.929893 -0.300394 -0.561449 -0.782403 0.41026 0.0921354 -0.0908536 -0.924986 0.31016 0.533738 -0.876644 0.671394 0.845349 0.0530563 -0.41111 -0.352843 0.233429 -0.773518 -0.0907829 -0.0173924 0.357788 0.885115 0.394515 0.232213 0.200057 0.732158 -0.66746 0.435386 -0.976053 0.881962 0.0275926 0.121019 0.545811 0.00317091 -0.591724 0.527075 0.424494 0.513965 0.918775 -0.921767 -0.594174 0.731841 0.229594 -1.07507 -0.194915 0.308203 0.0741845 -0.0440421 0.0225485 -0.421223 -0.511374 -0.946991 0.219267 -0.0542701 -0.217043 0.0870558 -0.419105 0.64452 0.801164 -0.236976 0.464017 -0.273275 -0.825175 0.073832 -0.38572 -0.767223 0.150702 0.289028 0.174162 0.75209 -0.480543 0.200601 0.006531 0.52343 -1.00937 -0.687978 -0.00721866 0.209242 -0.124491 0.586008 -0.375907 -0.183396 -0.14353 0.174456 -1.09166 -0.243893 0.304406 0.234619 -0.57114 0.673941 -0.255684 -0.369996 -0.0681313 0.563793 -1.1004 0.135798 0.290077 0.0873425 -0.236787 0.169666 -0.213903 -0.16228 0.285597 0.890913 -0.959414 -0.0306911 -0.0711694 0.624379 -0.198031 0.496094 0.272822 -0.0965939 0.339954 0.701787 -1.29839 0.458429 -0.0494863 0.42653 -0.541652 0.195709 0.858276 -0.048955 0.420331 0.43491 -0.368533 0.391801 -0.153686 0.489728 0.257 0.182474 1.10583 -0.465431 1.23092 0.171006 -0.79793 0.556077 0.0254754 0.750581 0.41423 0.0729597 1.4431 -0.614745 0.723413 0.713745 -0.457638 0.668317 -0.354261 1.72663 -0.0504027 -0.287695 1.6235 -0.729746 1.13916 0.564217 -0.324839 0.979539 -0.405207 1.36069 0.389617 -0.869618 1.64064 0.329051 1.12511 1.20655 -0.410608 0.540159 -0.0955147 1.69487 0.339151 -1.02625 1.64108 0.991021 0.815776 0.598764 -0.117391 0.594885 -0.432762 1.73641 -0.692305 -1.06668 1.45311 1.16688 0.711981 1.51872 1.04859 0.407285 -0.00751839 1.1675 0.552407 -1.27327 0.962973 0.185025 0.37646 1.46907 0.887887 0.218628 0.318298 0.975381 -0.199678 -0.745664 1.49612 1.30554 0.922744 0.576464 1.46745 0.187136 -0.0447568 0.925041 1.36232 -0.0577124 0.325363 1.09286 0.695465 -0.139404 1.12989 0.437244 -0.299149 0.946434 0.142295 1.2134 -0.406293 0.918509 0.693253 0.23293 0.735693 0.491353 -0.0817711 -0.440259 1.57483 1.23035 0.0377227 0.901336 0.574067 0.950794 0.631685 -0.504542 0.295396 0.173857 1.25325 -0.676542 0.235669 0.221389 0.748887 0.348104 0.840068 0.361538 -0.818881 0.903489 0.701312 -0.0828277 0.706034 0.190315 -0.682091 0.441345 0.108086 -0.295537 0.787066 -0.0894966 -0.450033 0.54396 0.406703 -0.841975 -0.152989 -0.717826 -0.210974 -0.922666 0.767815 -0.0462966 -0.889523 0.665395 -0.460738 0.586349 0.572905 0.356548 -0.234802 -0.771057 -0.523133 0.0749152 0.960836 -0.0164497 0.52435 -0.0788673 -0.970015 0.149051 0.605767 -0.878436 -0.0913816 0.699132 0.647279 -0.408783 0.2359 0.103383 -0.255487 0.235154 -0.578441 0.132656 0.829049 -0.472316 -0.286046 0.0823001 0.429942 0.0817328 -0.870364 1.0102 -0.393801 0.115652 0.749155 0.881711 -0.501029 0.274195 -0.285831 -0.0190587 -0.0977265 -0.66264 -0.851016 -0.766618 -0.912019 0.104477 -0.0854065 -0.247734 -0.39551 0.282972 -0.560969 0.473492 -0.324255 -0.0122397 -0.379644 -0.160659 -0.492801 -0.382401 0.692455 0.000107503 -0.346927 0.517479 -0.571575 -0.372562 0.341409 -0.318777 -0.215226 -0.417694 0.0487802 -0.0853508 -0.301232 0.617893 -0.329949 -0.736165 -0.45485 -0.414421 -0.192471 0.276068 0.186839 -0.270102 0.488979 0.908834 -1.02286 -0.580868 -0.019845 0.515758 -0.421274 0.978265 0.047675 0.541871 0.505501 0.894517 -0.59413 0.227688 0.13608 0.544146 -0.548092 1.1742 0.0109329 -0.0279405 0.999845 0.756573 -0.701286 0.104995 0.210274 0.814836 -0.306853 1.11015 -0.0259336 0.15766 0.155041 1.07848 -1.23903 0.677545 -0.0386165 0.42746 -0.946814 1.31055 -0.079302 0.975036 0.733328 0.868605 -0.639825 0.622001 -0.187063 0.663835 -0.71688 1.2067 0.0790809 0.572902 1.33665 0.659803 -0.923689 1.01966 0.30824 0.0982539 -0.539184 1.01193 0.204661 1.43347 1.41816 0.555163 -0.0133182 1.01814 -0.00245698 0.914611 -1.07282 0.511159 0.313879 0.0753201 0.778387 0.749728 0.263672 1.26102 -0.0692227 0.480163 -0.447674 0.534993 0.45138 0.899468 0.130736 1.02575 0.57087 1.69653 0.222666 -0.134897 -0.161804 -0.23461 0.0748734 0.880375 0.0865094 0.728114 0.48032 1.24289 -0.0252743 0.324809 -0.428221 0.729595 -0.148535 1.15644 -0.538368 1.58471 0.796691 1.34843 0.329799 0.420199 -0.0655137 0.622283 -0.560612 -0.0755673 1.12259 0.845435 0.819937 1.37162 0.024503 0.646707 -0.356332 -0.802593 -0.807259 0.572478 -0.604276 1.58938 0.214021 1.05761 1.27707 -0.232028 1.03907 -0.598948 -0.904653 1.00936 -0.786488 0.592795 -0.600662 0.484667 0.962231 -0.159868 0.87156 -0.132667 -1.18483 0.674327 -0.518746 0.460612 -0.810544 -0.202699 -0.400976 0.388744 -0.208441 0.961928 -1.14617 1.0067 -0.390066 -0.839296 -0.54498 -0.327708 -0.182907 -0.064219 -0.788176 -0.758476 0.0604453 -0.605271 0.573737 0.625828 0.0253004 0.296682 -0.637074 0.0724871 0.0929473 0.208296 1.00693 
0 0

